{"HiddenLayer":[3.862309860435553e-10,0.6852471469113472,4.544071765842502e-34,0.9999999999976781,0.877818746085755,4.1846309993541396e-38,1,1.1491503854519446e-11,2.8083184408855414e-20,1.3087380355528633e-27,6.909411986171645e-22,2.725915504108063e-07,1,1.1199979521527719e-30,0.9999999999999993,1.3753685300228376e-05,1,0.9999999773910119,1,1.4316889964872427e-23,0.031000936464860962,7.281157737691045e-11,5.121098121791674e-11,8.163583142635023e-39,1,1,1,0.02974326099923221,1.8843018770881337e-12,0.9762227590008966,4.926595319282266e-06,0.999999999999978,1,1.6369380595610018e-08,2.9077875854512783e-16,2.7618506579733673e-31,2.0598137308426648e-29,0.9999994263337932,0.9999999999999998,1.8942724217880815e-25,0.9999997624640904,1,1,1,1,1.3682022190252688e-26,5.623680557764596e-28,0.9999999999999962,4.165572455892428e-29,1,1],"InputLayer":[0,0,85,1],"OutputLayer":[74.81694022770995,73.07075447230072,152.0883296981308],"WeightHidden":[[0.4496546937638781,0.0652219591868658,0.13705688347721526,-33.32442061134971],[0.9021286393153802,0.8001227344587016,-0.01485771717006213,2.0399667930399525],[0.007518736685164562,-0.7996435114452278,-0.9143760932001082,0.9478982350450591],[0.8953597868027006,0.6707387594676704,0.3192138757984478,-0.34453496306137543],[-0.06654850679886626,-0.6284666981572296,-0.07816921038738057,8.617450991207873],[-0.6465926230925922,0.42957088478433664,-1.005999266789586,-0.5568773288022207],[0.648089912024437,-0.7919229674378641,0.6231814944175226,-1.3004887850939801],[-0.19576469339045466,-0.8600153148830436,-0.30568879612193534,0.7941345215137559],[-0.9493214423827986,-0.1595502148665925,-0.5381154449511596,0.720696845575133],[0.8878390981321251,-0.6557191786724663,-0.7184533000729231,-0.8322036633688825],[0.9920414509726101,0.49946531602827504,-0.3972723227401632,-14.955840074864213],[-0.11579824427254937,-0.5515868927142291,-0.18738473654288423,0.8124115643509493],[-0.40182890067611343,0.7540010345858952,0.570401948298344,-0.26063947954939914],[0.07758129935747426,0.5970416830739302,-0.8047034462694822,-0.5644330000450916],[-0.04456740457158359,-0.6709487259079228,0.4092594286142886,0.28012614273191555],[0.7994801605358077,-0.08665027520416155,-0.34641118514387753,18.250760269603415],[-0.4581848593560658,-0.1829648079116895,0.8433338490200076,0.4437483798847783],[0.5175369099301061,0.8494516000649357,0.21447142049325435,-0.6251524637880312],[-0.4291893476957509,0.42299837772983473,0.43682445113536494,0.9849691054417864],[-0.6263833280418017,0.3708472578896292,-0.6208338341822042,0.17027363035149898],[0.351872138562793,0.6001752048252662,0.10967186611568189,-12.764939854586629],[0.3832235396620285,1.0112963353091895,-0.27465765916130075,0.0027548853162570426],[0.9109741579660764,0.37792894231262075,-0.4453561252380109,14.160203515315912],[0.6327182673614453,0.43387628816999146,-1.021304120930015,-0.8902851645043078],[0.6645135440711878,-0.5266145248268004,0.8842600724330869,-0.4708710847921475],[0.13559237224556364,-0.5274209575952121,0.8915693522821377,-0.9685940498498906],[-0.15052729852126134,-0.8693568964278819,0.6877231941390125,-0.1594913630598022],[0.987063793396425,0.349170624991208,0.11038510760521333,-12.868214345575408],[-0.35675999231493005,-0.9471873567880172,-0.31503881857032345,-0.21916414213070928],[0.8070604157274284,0.5413006426462698,-0.04117696758467412,7.214917290822138],[-0.2670807863943617,-0.4911626525879451,-0.1378672424835951,-0.5021418818634464],[0.08449580681382485,-0.9135723788199056,0.36360818913997606,0.5420940249156851],[-0.5591134406051959,-0.044792130159901716,0.5871092021193274,4.4888257713461215],[0.23290160204206622,0.11852099367438997,0.038381474380716075,-21.19027866356107],[0.15504737646396705,-0.5678107032787201,-0.4091061037433932,-0.9999501576059033],[0.9319649285490785,0.6146861328408071,-0.8371358988126308,0.7923144995348579],[0.3774054423530142,0.5806699973595806,-0.7862018235851695,0.7748028647042251],[-0.8603874615926266,-0.9059771587329085,0.18062123739962202,-0.9815876206271572],[-0.5707030234996466,0.729101382516995,0.4143617695620023,0.7112056429434239],[-0.16324637192174662,-0.2920636057212825,-0.6629392962537604,-0.5759523247593422],[-0.23923085443872216,0.5149241019318795,0.17553838365533694,0.332184178455668],[0.141438237932066,0.880815917010592,0.49006307168962904,0.6548536497157567],[-0.47962564855696577,-0.7923120015955669,0.6215896443361243,-1.1129975852267922],[-0.6598643250401377,-0.1938740672688315,0.5657324823509902,0.4386397190074602],[0.6778522403268479,0.8563664567554434,0.4714852288347373,0.5676962263662251],[-0.09566598062073439,-0.8521308610217206,-0.7045324476745916,0.33154326369591924],[-0.04286282531414021,-0.14806796236855854,-0.9517727094922719,18.155284056076535],[0.8640221534507431,0.7899942049302435,0.3986846697561816,-0.6809602012086218],[0.9785105505205189,-0.8772186988271838,-0.7606674851528203,-0.6913777482714585],[-0.5475102060770627,-0.5343491117703227,0.88017581883218,0.4132870423477668],[-0.4813073143506169,-0.8778138485154042,0.7956476800396235,-0.23383094922554293]],"WeightOutput":[[4.862045425479798,0.6599261068361059,-0.708547453324357,4.904183252828982,3.8026061268997067,8.030488322154206,4.222080519542372,-0.692014457763248,0.36004789004451565,-0.84762134365112,5.348605556546862,0.8454696330237884,4.76238464515661,2.5941638664038695,-4.114617455532137,-26.267308127757417,-3.683740496980599,5.2759739533161625,5.62084291318139,4.885940975067986,-2.2346432419588935,4.302688707397309,9.494565884825652,9.861049191107119,1.3648010787872664,3.2674092726905264,3.547070920933747,-0.8800437277267852,-0.6944890394020897,0.17471393770974342,-0.3795197789654167,7.3286160045751885,-0.8676623898048531,20.079956814929147,0.30365403335891394,2.5602267795512037,2.8555384675349673,1.38233356865279,4.996799620813482,0.9971011268127559,4.8824566834563505,4.513028075422994,3.2221858641641665,2.723007448259407,5.1346201663024225,0.06882479061742774,-13.021037221923219,5.146363608112934,-0.6011650208221535,1.9745115414014036,5.349340770884428],[12.480659136966585,7.727794397808377,-0.7693505150954585,5.529714017495556,3.1414756283755305,4.084004806957388,2.235064907675347,0.1537460743148884,0.4767483063207103,-0.22949485937117242,31.668243372547185,0.641176588500745,6.7456359696917705,5.734671984846996,-18.751159113973134,-6.926113946798328,-6.539260614810515,5.834248315231597,6.569311623711206,8.11240053589579,-1.4633286911419248,6.349453986941807,-6.291431131962293,4.955354598162413,4.389544249189684,3.694488632473752,2.254325487436072,-1.8278221506109535,0.48232771012110376,14.175663495577917,0.8068546464752758,4.883502457297844,-10.021731169390312,19.826661557602375,0.3053737604391322,8.073721167135583,8.287715551292697,-0.525161890178947,6.918176189619176,-0.55505181969571,7.073693554258246,6.857298961665798,0.9219566695322481,1.6512444411654261,6.441363773768673,-0.8609197047844457,-74.31852238510342,5.930576329256496,0.6774219795825525,2.734773894263659,6.451267728943067],[29.901500661486367,1.9403256909213658,0.13885634771393685,4.483149154741099,-11.195180572180142,-4.862358979993652,15.279479744425442,-0.17964655995234263,0.41817850256131467,-0.8654227586660534,22.385003038639333,0.8330741967510661,4.4016809635631535,-7.666171908673578,-4.125231762919902,5.046429884771286,10.194777404769523,3.193736208943731,4.747460755276617,-1.7647808309961415,27.051811538847,1.6730659537486618,-15.463318379789156,-3.0560054223135813,10.206985536473196,9.632553551797962,15.175130183705233,27.98339550894486,0.890823737901309,-5.12829637593125,0.6283884242234179,29.106464314362558,5.370534622209345,16.989363207039833,-0.8990420284735714,-8.467583246245606,-8.047756646428914,0.4748273403000992,4.127695397757428,-0.4785961450549459,3.874238756629811,3.934806108074303,16.183823906230792,5.6848199053977675,2.986842076305892,-0.4618596789131687,-11.71352700592561,3.896661180125211,-0.8742787158663937,10.891327235433609,4.1996406617092585]],"ErrOutput":[-0.18305977229005066,0.0707544723007203,0.08832969813079217],"ErrHidden":[2.6342080498357263,0.5973585061142628,0.08753668502950192,-0.11051141441701734,-1.4626976411682366,-1.6105884595479705,0.7348796193425393,0.12169010500519462,0.004759370964949404,0.06248505145793558,3.2388158943244685,-0.035820175008954666,-0.005717938232971398,-0.7462840070732922,-0.9378878636847562,4.764183535500188,1.1121644195081624,-0.27091762812219294,-0.14480022472994486,-0.4763131813780842,2.6950145822315537,-0.1906155381198929,-3.549090203214489,-1.7244839562481507,0.9623197098692489,0.5141109899527108,0.850592329716112,2.5035388920341894,0.2399460398730826,0.5180276708957146,0.18206873887248878,1.5749201152080894,-0.0758704726277104,-0.7723420226296482,-0.11339238990924647,-0.6453617226299271,-0.6471971964313856,-0.24826581876639384,-0.06062296040629639,-0.2640757568458847,-0.05107556786214629,0.006590959663946794,0.9048922736251797,0.12049827814252656,-0.22036019844565213,-0.11430889592083687,-3.9093920291820137,-0.17828639952969016,0.08075499145606461,0.7940715438660637,0],"LastChangeHidden":[[0,6.482187422268984e-13,2.031123983845466e-12,8.643515621867183e-15],[0,0,1.0951431458889774e-05,1.2884037010458557e-07],[0,1.3808912110518751e-64,3.3810703208030654e-39,3.9777297891800767e-41],[0,0,-2.181089045977596e-17,-2.5659871129148187e-19],[0,7.863131854253066e-39,-1.3334689750754188e-05,-1.5687870295004927e-07],[0,-1.0845441048416138e-49,-5.7287606486622843e-42,-6.739718522619892e-44],[0,-1.884069674931441e-35,-1.8840696749314416e-35,-2.2165525587428704e-37],[0,1.2849519948345593e-66,1.1886419641018004e-16,1.3984023107080003e-18],[0,2.4995872118634513e-34,1.136095486070023e-26,1.336582939491718e-28],[0,2.22194055466732e-60,6.951007897200646e-33,8.177656349647818e-35],[0,-2.999923923425675e-31,1.9021536871921419e-25,2.2378278068026087e-27],[0,2.5908547944339407e-51,-8.299633223015261e-13,-9.764274380017954e-15],[0,0,0,0],[0,2.3319682256199704e-37,-7.081291074738642e-35,-8.330930676163107e-37],[0,-1.0740327195936926e-21,-5.52525651789325e-20,-6.37394499521633e-22],[0,-2.3624830347775013e-22,5.5695552871186605e-09,6.552417984845344e-11],[0,-6.734992915076052e-35,-1.905258296392016e-69,-3.961755439059234e-37],[0,0,-5.206397304053268e-13,-6.125173298886197e-15],[0,0,0,0],[0,-2.2294916460487438e-38,-5.796424895840051e-28,-6.819323406870648e-30],[0,0,6.881422379323807e-06,8.095791034498597e-08],[0,4.22546920454795e-17,-1.052952454037595e-15,-1.3381903977982988e-17],[0,-1.6949757453677043e-28,-1.5448953296897488e-14,-1.8175239172820377e-16],[0,-1.0339311650166326e-49,-1.1966272989385423e-42,-1.407796937136156e-44],[0,-6.575730857940111e-42,-6.57573085794853e-42,-7.736153950517778e-44],[0,-7.496110161622017e-42,-7.496110161625123e-42,-8.81895313132002e-44],[0,-1.8642481412088564e-35,-1.8642481412088564e-35,-2.1932331073045365e-37],[0,4.188245295731814e-31,6.141133212425063e-06,7.224862602853015e-08],[0,6.512941865642766e-70,3.8431115733208247e-17,4.521307733318618e-19],[0,0,1.0220738390929206e-06,1.2024398106975537e-08],[0,3.437381857517747e-45,7.624283910146565e-11,8.969745776643018e-13],[0,1.3032423372082856e-16,3.9391526156458463e-16,1.5678468280307871e-18],[0,-5.937885606852217e-24,0,-3.492873886392539e-26],[0,2.886372700514011e-10,8.648371724810746e-10,3.3830898285227613e-12],[0,-1.381370662216439e-56,-2.802628361133439e-21,-3.2972098366275755e-23],[0,3.224339552692106e-37,-1.4827903980079252e-35,-1.7444592917740297e-37],[0,1.0681856079771944e-36,-1.1320716353984314e-33,-1.331848982821684e-35],[0,7.677350192801566e-25,-1.2105838449476221e-11,-1.4242162881738538e-13],[0,0,-1.144185109888161e-21,-1.3461001292801894e-23],[0,5.38112734612941e-44,-4.251967099375783e-30,-5.002314234559713e-32],[0,0,-1.031243680069557e-12,-1.2132278589053613e-14],[0,0,0,0],[0,-1.8605119421034425e-35,-1.8605119421034436e-35,-2.1888375789452247e-37],[0,3.804432958009923e-36,-6.4062578914919926e-43,2.237907021845823e-38],[0,0,0,0],[0,-2.0195553477588287e-66,-1.3293803229523487e-31,-1.563976850532175e-33],[0,-5.565149591595923e-25,-1.8687396155112158e-31,-3.2736196053779565e-27],[0,0,-5.720398539752509e-20,-6.729880635002952e-22],[0,4.345212819709681e-68,2.859321528724294e-34,3.363907680852111e-36],[0,-8.442440551435557e-42,-8.44244055144458e-42,-9.932283001688892e-44],[0,0,0,0]],"LastChangeOutput":[[5.277188159293086e-13,-1.254406584806735e-07,-8.318367427247767e-41,-1.83059244094301e-07,-1.606932997703961e-07,1.8291428080710338e-24,-1.8305924409472606e-07,-2.1036320788785693e-18,-5.1409013368180275e-27,-2.3957728677563537e-34,1.8290163243397853e-24,-4.9900547146394065e-14,-1.8305924409472606e-07,1.8291428080708277e-24,-1.8305924409472593e-07,-2.517746499207049e-12,-1.8305924409472606e-07,-1.8305923995592985e-07,-1.8305924409472606e-07,1.829140187224417e-24,-5.6744961747111955e-09,5.281819316543836e-13,-9.374668731359265e-18,1.8291428080710338e-24,-1.8305924409472606e-07,-1.8305924409472606e-07,-1.8305924409472606e-07,-5.444266390358414e-09,-3.4493987254546875e-19,-1.7870658777174453e-07,-9.01861417313041e-13,-1.8305924409436763e-07,-1.8305924409472606e-07,1.305673613852717e-13,-5.322989332605473e-23,1.829142808070982e-24,1.829142808067257e-24,-1.8305966727484547e-07,-1.83059244094726e-07,-3.4676507818784623e-32,-1.8305920061145652e-07,-1.8305924409472606e-07,-1.8305924409472606e-07,-1.8305924409472606e-07,-1.8305924409472606e-07,-2.504627866615077e-33,1.639418860187013e-27,-1.8305924409472537e-07,-7.625487452333749e-36,-1.8305924409472606e-07,-1.8305924409472606e-07],[2.5023228549350837e-13,4.848455067308482e-08,3.215133998887884e-41,7.07547226983543e-08,6.210960215497757e-08,-2.2594182793138114e-25,7.075472269851858e-08,8.130752911682165e-19,1.9870108926007866e-27,9.259906908542414e-35,-2.2589294074826615e-25,1.9287071302951794e-14,7.075472269851858e-08,-2.2594182793130184e-25,7.075472269851853e-08,9.731347456076132e-13,7.075472269851858e-08,7.075472109883156e-08,7.075472269851858e-08,-2.259408149473867e-25,2.1937052981976897e-09,2.5040291967416667e-13,3.623405726134013e-18,-2.2594182793138114e-25,7.075472269851858e-08,7.075472269851858e-08,7.075472269851858e-08,2.104719134301565e-09,1.333227849686276e-19,6.907237655885998e-08,3.485786520550153e-13,7.075472269821626e-08,7.075472269851858e-08,6.447579870213292e-14,2.057389761711908e-23,-2.2594182793136154e-25,-2.2594182792992367e-25,7.075443171127055e-08,7.075472269851857e-08,1.3402824559742283e-32,7.075470589179065e-08,7.075472269851858e-08,7.075472269851858e-08,7.075472269851858e-08,7.075472269851858e-08,9.68064260078074e-34,-2.025064649941877e-28,7.075472269851832e-08,2.9473288094708416e-36,7.075472269851858e-08,7.075472269851858e-08],[1.4137796346213884e-13,6.052781508470187e-08,4.013764873615239e-41,8.832983958362303e-08,7.753746485530523e-08,-2.876961216021144e-25,8.832983958382815e-08,1.0150410665385373e-18,2.4805792004030822e-27,1.1560043561267036e-34,-2.8763509109107392e-25,2.4077929360791133e-14,8.832983958382814e-08,-2.8769612160201623e-25,8.832983958382808e-08,1.2148588707548068e-12,8.832983958382815e-08,8.832983758678304e-08,8.832983958382814e-08,-2.8769485699554575e-25,2.73844481274902e-09,1.4145945025463662e-13,4.523450224264135e-18,-2.876961216021144e-25,8.832983958382815e-08,8.832983958382815e-08,8.832983958382815e-08,2.627354718523529e-09,1.6643981599047987e-19,8.622960306399424e-08,4.351646773647762e-13,8.832983958340314e-08,8.832983958382815e-08,3.72147885183561e-14,2.5684399965137641e-23,-2.8769612160209085e-25,-2.876961216002985e-25,8.832964745902928e-08,8.832983958382812e-08,1.6732051119402543e-32,8.832981860235295e-08,8.832983958382814e-08,8.832983958382815e-08,8.832983958382815e-08,8.832983958382814e-08,1.2085288898838197e-33,-2.578554194526326e-28,8.83298395838278e-08,3.6794375757092066e-36,8.832983958382815e-08,8.832983958382814e-08]],"Regression":true,"Rate1":1e-06,"Rate2":1e-06}
