{"HiddenLayer":[1,1,1.814400152068853e-132,2.0677206909269232e-70,1,4.9974747959539175e-77,1,2.6049744383232674e-48,1,1,4.455792538277441e-84,1,5.965310678025205e-39,4.6957247555374965e-06,8.158808025697728e-51,3.8263893593354337e-48,1.4427804903781342e-58,9.47915832521121e-128,1,2.109287855237744e-39,2.4419340955351227e-20,1,1.1107959119843616e-70,1,2.3319633421304595e-82,1,1,0.005422846409415541,1,3.665735353864044e-89,5.0363598428287466e-83,2.148436064000793e-55,1.2324585886011387e-64,1,1,0,3.101983278340206e-42,2.0994893517280753e-67,2.9043057141158634e-21,5.264534972044483e-09,7.751372231724045e-67,4.0806332744516026e-58,0,0.9999999999997886,1,1,5.824891317645725e-125,1.406047096575837e-24,1,1,1],"InputLayer":[244,81,30,1],"OutputLayer":[223.05461334285727,116.37480663089129,55.53392036256516],"WeightHidden":[[3.2110260070720216,-4.082950610603759,3.7075807968578403,-2.4470385775246886],[0.39087298084536654,1.5369625297989116,-1.57100783310643,-0.5586219963170083],[-0.8706467014316869,-0.9062019026864815,-0.6082140475947495,0.741093337928558],[-0.7842871154418902,0.2608182579621119,0.3063514384272137,0.59472449560053],[0.535447456410163,0.5183035616652514,0.6737446152193847,-0.26219327310494556],[-0.5399753233835043,-0.34595513434553826,-0.5213049393465763,-0.2746264485317751],[0.46862259094450964,0.9989052775882765,0.17280159155771413,0.02216414341764672],[-0.6775646434674533,0.516642121466214,0.47668821608895084,-0.38954691647412537],[-0.11986222288957771,3.2480037006984017,-4.065766185672815,-2.7025121979829443],[0.900220456009623,-0.8747272051150031,-0.4092462446954068,0.39029540757518627],[-0.8340055463687379,0.3865725293218239,-0.6521243481527736,-0.17423398430841608],[0.21061278521198767,0.23551212447188896,0.6263422376738534,-0.25035884909761286],[-0.014080294521718661,-0.9227458946889034,-0.30115784029615145,-0.8021129470978938],[0.28310824969451653,-0.5841503281273461,-1.1078252477850337,-0.7963313672613954],[-0.7793538305220208,1.234883205757079,-0.8237080385712706,-0.4847055214847293],[-0.23640262323928887,-0.6730488702674773,0.07416617460790442,0.7920504926256351],[-0.6718397134044227,0.6842857242700515,-0.8466585384749064,0.718139313297693],[-0.9603635803122184,-0.8063200137799587,0.21941423997979315,0.5764111377912522],[0.5174661567292804,0.9970843206221547,0.38157570712687905,-0.010042178700025661],[-0.5591188998038333,0.5223201752831073,0.1725250792957763,-0.11314327028454556],[-1.02060282646957,2.0826514383460646,1.202481880057404,-0.901044721640247],[0.6687867360868384,0.6331274477427894,-0.23481098262173497,0.15201707000986456],[-0.6900460283985042,-0.2065375756227868,0.8151419683562483,-0.4293642093906991],[0.8557165772657112,-0.4333492634182645,-0.2593116147236193,0.040178687470056706],[-0.6305524706164982,-0.15015886332484718,-0.7259446835457362,-0.16925581053487804],[0.4918727648208241,-0.15141400560360094,-0.6033601546107605,-0.020123553122355645],[0.10570117152866465,0.8265827677446251,0.32054282735391526,0.12286417915014058],[-0.04161214917283844,0.09112307592035433,-0.10099805097685322,0.5879726756385352],[1.6691064115164647,1.7083422297267488,-1.023639222635007,-0.9423781229543273],[-0.8384413579726323,0.2428475613390435,-0.6077028842297179,-0.4909189152512696],[-0.9709572295229144,0.35390323136222535,0.6121163514107106,0.38603257014939296],[-0.5704074098618714,-0.11688100742566164,0.7876895402837893,-0.8613565500566153],[-0.40172724345800936,-0.6199453644844983,0.049312729182575676,-0.3987948732395784],[4.046537200248013,2.600929891355867,-1.7654293844239686,-0.24050034225959036],[1.119480421947126,2.7816503814006954,-1.709002908895425,0.9468793461938307],[-4.864377052002119,-4.561512369267435,4.120874033423149,-2.3738866246812207],[-0.2965427079586037,-0.04026960653054845,-0.634832758900167,-0.9132905937373735],[-0.32341274742966397,-0.6507928756014844,-0.7252443169544891,-0.14724427609216373],[-1.008977254637561,1.9868889887966348,1.241302346535866,0.7252790549641054],[-0.21896378118600823,0.2673853024163432,0.3506902695995247,2.1859720081640486],[-0.28984147878210276,-0.7449610889627756,-0.7270869219936482,0.6504453478758272],[-0.16509025154479617,-0.7666079206214493,-0.9870016660093431,-0.15637027540872828],[-4.124311183696021,-3.8659886512263317,3.4889510053296986,-1.9070118360878685],[-0.2351679234005366,0.7895773775622186,0.7509551217084995,0.0814547453232184],[1.195170028494487,-1.553295274204764,1.35103983261489,0.4995262700866134],[0.46666811194156965,0.5272805204108153,0.7210479163956218,0.35143557592952823],[-0.9419207093320984,-0.5751653404394204,-0.29179458455451446,-0.8901130936324174],[0.017858319478175844,-0.4750193465884496,-0.7079484390761002,0.4363303510962462],[0.8972014190174422,0.6709132931634882,0.8464869896912339,-0.16365917253255313],[0.5792306868009921,-0.1833224006313873,-0.9525693642065289,0.9911818889718],[-0.06495616907810775,0.599311840192738,0.9645659348862581,0.5333741838438284]],"WeightOutput":[[14.119824370559702,27.49115646743676,0.08576116003308165,-14.574031886157886,6.271825904463486,0.5033804827180159,7.645487225101832,-9.321176289028548,6.744192040749612,21.959107897357462,0.26869090570631027,6.2350342980116755,0.5896027600381897,-0.6902384739762625,-8.127783939029241,0.996437419840938,0.14864207787454406,-0.6760442911621836,7.030228580332479,-14.883968615682674,15.93059291509718,7.673889197028335,-6.697166699155908,22.818225795252815,0.7682625505701675,13.38635607865732,6.626046577483051,-3.8489659693667178,7.875381213025247,-0.7334026548626063,-15.186312673517147,-6.904856166909649,0.580736098154345,11.680668101871326,-0.2853452814336619,-8.562799991726738,-0.21557194108360067,-0.8515561331281742,16.02925209460564,-10.755500311818961,0.35924132301317946,-0.5663318267801818,-10.617650052035723,7.05443588368828,18.61502439246996,6.615631459857437,-0.9202149825148142,0.19663362223196557,6.7225399818278495,9.614676406669014,7.1810623867787475],[17.586419423393657,29.444630759514304,-0.4195839840012544,7.169454383241783,-0.45724861553747137,-0.7385330492938221,0.5056046625887104,7.745944412425052,32.91699878682014,-7.639375327406209,0.5533258411181288,-0.9245919543984927,0.6085159312462085,-0.5184999777710824,25.547362482556768,-0.30455850026676745,-0.5101525595600843,0.7923782882819443,-0.8616226639154337,8.621525977096473,19.972067510700047,0.03327456643035552,-9.350644750882475,-7.105984626966631,-0.10106789059364452,10.14271510550841,-0.45811871679741994,25.99666375336958,13.010042468057478,0.1136774047676905,7.868380167504538,-9.039972808440389,-0.7015383626335256,14.947354590861762,28.695671915346338,25.049211838736554,-0.4788478547308731,0.2705831156822118,20.296828260426565,7.168723681057997,-0.6545876950182444,-0.7625133990340203,22.47747933660055,0.25735626427960595,-18.296188484905514,-0.8993699151581661,-0.7182876412255195,0.8579691397671221,-0.713871195893823,6.462886155227855,-0.41278237099705933],[29.059586636116787,-10.76573719848951,0.3353363513462633,-3.4173400804457787,1.865862301878184,0.7076907383849387,1.5304267326397862,8.227860104606226,-26.795894727124214,3.6427292128271977,0.31997341081530983,2.936864640843075,0.8307596125853425,-1.5837054391260885,-3.9937603641237867,-0.8790101425870666,-0.5093446915279571,0.9886289020051406,1.2858092827675678,-1.58882975307011,12.474411601324833,2.9869184614181896,10.649104262245743,5.404446445372057,0.5030021176389521,-9.048130330999038,2.2253184638047157,-45.634728993537856,24.051938100661054,-0.7186167564271659,-2.073704899173875,12.531204240178957,-0.5106631901684364,23.756939682647687,9.009019244763625,23.87553282688315,0.8141098782979506,0.7116879994683523,8.135091865737914,33.08930390993851,-0.6764340660107521,-0.6800607799522265,15.990422990434114,2.235137625152082,1.8173746443144019,2.1281933251909426,-0.9832972878114992,-0.29640088451132063,2.3791117410487197,-15.181733097213785,1.2572049424074427]],"ErrOutput":[19.054613342857266,15.374806630891285,5.533920362565162],"ErrHidden":[700.2490930365602,916.9621917885081,-2.961152212149602,-186.3848555028619,122.80270491197382,2.153221826664808,161.924699478949,-12.986690000162248,486.3141784082412,321.127028273464,15.39778650163264,120.84318326350142,25.187824929619122,-29.888163909922543,215.81282600387922,9.439829579063726,-7.829852595123263,4.7718940019367855,127.82663464466029,-159.84642954115563,679.6503646873483,163.26401341359272,-212.44498194413097,355.44716937802445,15.868620233658103,360.9425529349061,131.52806700972204,73.81416426446393,483.1908041710017,-16.20370379769998,-179.8702102913694,-201.21051201460392,-2.546284291557493,583.8523760160367,485.6085208890904,354.09124258001447,-6.964613924143038,-8.127485063246773,662.5099610895087,88.38941332618289,-6.962286978903368,-26.27813224462166,231.76140939157239,150.74548753990095,83.4590016879216,124.00797633770834,-34.01936315680047,15.297628370747685,130.28564635673612,198.55512734289323,0],"LastChangeHidden":[[-2.19067097925256e-310,6.288196037549263e-34,6.550204205780483e-34,6.550204205780482e-36],[-1.6035952026732142e-54,4.174214245720106e-28,4.3481398392917765e-28,4.3481398392917764e-30],[-5.843412869849723e-132,-7.781037631205129e-90,-8.105247532505342e-90,-8.105247532505342e-92],[-9.919176054108553e-73,-3.25001473317374e-73,-1.2755100897275143e-73,-4.079077871438728e-75],[0,0,0,0],[2.6257536685871583e-81,-2.6407399825672407e-63,-2.750770815174209e-63,-2.750770815174209e-65],[0,0,0,0],[3.2514058348718124e-48,2.461221052688938e-48,8.917449301186567e-50,1.2750463100937743e-50],[1.6517441624204066e-36,4.111328264539877e-37,3.82281400036164e-37,7.212856604455924e-39],[-1.6155162687703768e-66,-6.707699127634617e-67,-1.7761231492905263e-66,-9.447463560051861e-69],[-1.8829186812758324e-68,1.311725340585338e-37,1.3663805631097271e-37,1.3663805631097273e-39],[0,0,0,0],[5.5832314394066694e-42,1.6942214088838615e-42,8.94444435969286e-43,2.3396732043202354e-44],[-3.4244407442263853e-09,-1.1368020503374426e-09,-4.210377964212834e-10,-1.403459321404258e-11],[-3.130052762288893e-31,-2.3690457583982986e-31,-8.596392569012953e-33,-1.2274931462597042e-33],[2.9360908823502296e-49,3.618251668271844e-50,2.9344636174380487e-50,8.967697374064625e-52],[8.209477561785721e-38,-2.57013699692795e-33,-2.6772885082983225e-33,-2.6772585678507436e-35],[-2.822089646979555e-58,4.612501999545772e-49,4.8046894910834724e-49,4.8046896166664616e-51],[0,0,0,0],[5.909559604544059e-35,4.4727258541669633e-35,1.622231262652031e-36,2.3174743401789048e-37],[4.04957381285916e-22,1.3443257329290007e-22,4.9789841965085295e-23,1.659661398721931e-24],[-3.4945553878744364e-47,-2.07926045578529e-45,-3.302354841541343e-45,-1.7472776939372182e-47],[7.2423780029086375e-62,8.369771666139933e-63,3.6427206604324095e-62,4.1866567167030496e-64],[-1.1009921367932787e-75,7.602119205980479e-54,7.918874172896332e-54,7.918874172896331e-56],[9.02922996020103e-86,2.021080656665924e-63,2.1052923506936706e-63,2.1052923506936706e-65],[-6.878187872999607e-51,-7.951569015123197e-52,-3.458963377013102e-51,-3.975821425272704e-53],[0,0,0,0],[9.713937658635249e-06,3.2247088209456136e-06,1.1943365868739992e-06,3.981121988646002e-08],[-9.444898146529533e-38,-5.619714397185072e-36,-8.92542874847041e-36,-4.722449073264767e-38],[3.279027519046782e-72,-5.780634289041913e-42,-6.021494051085326e-42,-6.021494051085326e-44],[-2.7138407958539047e-71,-1.1267993947693953e-71,-2.983637834036144e-71,-1.5870414010837817e-73],[-3.8220885006798334e-52,-9.654424455863326e-53,-8.558906234726172e-53,-1.6540907343275162e-54],[7.782960352209971e-63,-2.9453954538245157e-49,-3.0681202643980083e-49,-3.0681202644014686e-51],[-1.7403004858133324e-39,-1.0354787890589327e-37,-1.644583959093599e-37,-8.701502429066662e-40],[-1.728476155277629e-37,-1.0284433123901893e-35,-1.6334099667373596e-35,-8.642380776388145e-38],[-7.403014260380955e-226,5.9166976953195786e-36,6.163226765957894e-36,6.163226765957893e-38],[-5.271404287496637e-46,-1.7499333912112375e-46,-6.481234787510969e-47,-2.160411594007173e-48],[-4.163542051559571e-71,-1.382156845569844e-71,-5.119143118577624e-72,-1.7063705355283308e-73],[4.694880784030365e-23,1.5585464891292177e-23,5.772394415102595e-24,1.9241314690754252e-25],[1.1354152146085146e-11,3.7691996813608165e-12,1.3960140222773493e-12,4.6533439814608376e-14],[-1.3168050410986849e-70,-4.371358124136732e-71,-1.6190263441202673e-71,-5.396742900272213e-73],[-2.616446708540481e-61,-8.685745187467652e-62,-3.2169427182011885e-62,-1.0723142258946361e-63],[-2.3203103568178656e-200,2.6209940083428956e-34,2.7302020920238495e-34,2.7302020920238493e-36],[7.775195720821281e-16,2.5811100411900175e-16,9.559667048453959e-17,3.1865556277065393e-18],[1.480342299340106e-24,1.12041205539664e-24,4.063280475926576e-26,5.805223492244808e-27],[0,0,0,0],[1.3854255154708119e-88,-4.463055575903207e-62,-4.649016224899174e-62,-4.649016224899174e-64],[5.248241374551256e-28,1.7422440627399105e-28,6.452755789994735e-29,2.1509185961674526e-30],[0,0,0,0],[-3.627984452676597e-45,-4.194201679315247e-46,-1.8244777305368007e-45,-2.0971008397003678e-47],[0,0,0,0]],"LastChangeOutput":[[1.9054616075948193e-06,1.9054616075948193e-06,1.6871179407965936e-91,1.2627219853052234e-27,1.9054616075948193e-06,8.287017171117151e-65,1.9054616075948193e-06,1.2627219853052234e-27,1.9054613342857075e-06,1.9054616075948193e-06,6.627118303821936e-40,1.9054616075948193e-06,1.9563718541881747e-44,8.94752195812519e-12,-1.9086358216507935e-20,2.4782437526385345e-51,1.4882524841941794e-35,1.833865123671641e-51,1.9054616075948193e-06,1.2627219852638554e-27,-1.9086311686398178e-20,1.9054616075948193e-06,1.2627219853052234e-27,1.9054616075948193e-06,1.7376407979876552e-65,1.9054616075948193e-06,1.9054616075948193e-06,1.0333024185473478e-08,1.9054616075948193e-06,4.176088202855314e-44,1.2627219853052234e-27,1.2627219853052234e-27,1.6703532430857455e-51,1.9054616075948193e-06,1.9054616075948193e-06,-1.8164305108751674e-34,5.910709199363251e-48,4.0005211660766104e-73,-1.9086352682465923e-20,1.0031554867804569e-14,1.4770460376031352e-72,7.775489103472495e-64,-1.8160261180589528e-34,1.9054616075944166e-06,1.9054616075948193e-06,1.9054616075948193e-06,1.1542768569551046e-64,2.679168378938093e-30,1.9054616075948193e-06,1.9054616075948193e-06,1.9054616075948193e-06],[1.5374807262867031e-06,1.5374807262867031e-06,4.127812633748913e-91,3.0894581536561952e-27,1.5374807262867031e-06,2.0275555933499338e-64,1.5374807262867031e-06,3.0894581536561952e-27,1.5374806630891084e-06,1.5374807262867031e-06,1.6214339257721735e-39,1.5374807262867031e-06,1.1066963482128933e-44,7.219586010827871e-12,-2.021575505578353e-20,1.4701599542507608e-51,3.641385480033707e-35,4.4868540221450433e-51,1.5374807262867031e-06,3.0894581536123786e-27,-2.0215717511519208e-20,1.5374807262867031e-06,3.0894581536561952e-27,1.5374807262867031e-06,4.251425146640505e-65,1.5374807262867031e-06,1.5374807262867031e-06,8.337521500429803e-09,1.5374807262867031e-06,1.0217489380295948e-43,3.0894581536561952e-27,3.0894581536561952e-27,4.0867950324759475e-51,1.5374807262867031e-06,1.5374807262867031e-06,-1.3945095418061805e-34,4.769239314616361e-48,3.2279301503588896e-73,-2.021575059046986e-20,8.094153464549702e-15,1.1917705228467628e-72,6.273894794157741e-64,-1.3935201280044528e-34,1.537480726286378e-06,1.5374807262867031e-06,1.5374807262867031e-06,2.8241289347759438e-64,2.1617702228931742e-30,1.5374807262867031e-06,1.5374807262867031e-06,1.5374807262867031e-06],[5.533921319788089e-07,5.533921319788089e-07,2.3163314146969572e-91,1.7336562595430138e-27,5.533921319788089e-07,1.1377674164574639e-64,5.533921319788089e-07,1.7336562595430138e-27,5.53392036256518e-07,5.533921319788089e-07,9.098713222626267e-40,5.533921319788089e-07,6.172045351297532e-45,2.5985766841670948e-12,1.8044654348545623e-21,1.2797296730615482e-51,2.0434362728976697e-35,2.5178081982018736e-51,5.533921319788089e-07,1.7336562595469243e-27,1.8044789483231222e-21,5.533921319788089e-07,1.7336562595430138e-27,5.533921319788089e-07,2.3856968564613003e-65,5.533921319788089e-07,5.533921319788089e-07,3.0009600275251445e-09,5.533921319788089e-07,5.733567322656649e-44,1.7336562595430138e-27,1.7336562595430138e-27,2.2933142947747227e-51,5.533921319788089e-07,5.533921319788089e-07,-2.6357799874548188e-34,1.716612846786974e-48,1.16184957802059e-73,1.8044670420739628e-21,2.9134228770519244e-15,4.289729890416006e-73,2.2581900198688165e-64,-2.635224775657573e-34,5.533921319786919e-07,5.533921319788089e-07,5.533921319788089e-07,1.5847663523513715e-64,7.7809526662703185e-31,5.533921319788089e-07,5.533921319788089e-07,5.533921319788089e-07]],"Regression":true,"Rate1":1e-07,"Rate2":1e-07}
